digraph Tree {
0 [label="author_author_jac_qgm_3_qgm_3 <= 0.1316\ngini = 0.46693877551\nsamples = 21", shape="box"] ;
1 [label="gini = 0.0000\nsamples = 4\nvalue = [ 6.  0.]", shape="box"] ;
0 -> 1 ;
2 [label="binding_binding_jac_qgm_3_qgm_3 <= 0.5000\ngini = 0.366230677765\nsamples = 17", shape="box"] ;
0 -> 2 ;
3 [label="title_title_jac_qgm_3_qgm_3 <= 0.5607\ngini = 0.21875\nsamples = 7", shape="box"] ;
2 -> 3 ;
4 [label="gini = 0.0000\nsamples = 3\nvalue = [ 0.  4.]", shape="box"] ;
3 -> 4 ;
5 [label="title_title_jac_qgm_3_qgm_3 <= 0.7477\ngini = 0.375\nsamples = 4", shape="box"] ;
3 -> 5 ;
6 [label="gini = 0.0000\nsamples = 1\nvalue = [ 1.  0.]", shape="box"] ;
5 -> 6 ;
7 [label="gini = 0.0000\nsamples = 3\nvalue = [ 0.  3.]", shape="box"] ;
5 -> 7 ;
8 [label="publisher_publisher_jac_qgm_3_qgm_3 <= 0.1571\ngini = 0.408163265306\nsamples = 10", shape="box"] ;
2 -> 8 ;
9 [label="gini = 0.0000\nsamples = 1\nvalue = [ 2.  0.]", shape="box"] ;
8 -> 9 ;
10 [label="publisher_publisher_jac_qgm_3_qgm_3 <= 0.2951\ngini = 0.332409972299\nsamples = 9", shape="box"] ;
8 -> 10 ;
11 [label="gini = 0.0000\nsamples = 3\nvalue = [ 0.  7.]", shape="box"] ;
10 -> 11 ;
12 [label="title_title_jac_qgm_3_qgm_3 <= 0.9681\ngini = 0.444444444444\nsamples = 6", shape="box"] ;
10 -> 12 ;
13 [label="gini = 0.0000\nsamples = 3\nvalue = [ 0.  4.]", shape="box"] ;
12 -> 13 ;
14 [label="publisher_publisher_jac_qgm_3_qgm_3 <= 0.6600\ngini = 0.5\nsamples = 3", shape="box"] ;
12 -> 14 ;
15 [label="gini = 0.0000\nsamples = 1\nvalue = [ 1.  0.]", shape="box"] ;
14 -> 15 ;
16 [label="gini = 0.4898\nsamples = 2\nvalue = [ 3.  4.]", shape="box"] ;
14 -> 16 ;
}