digraph Tree {
0 [label="name_name_lev <= 0.1099\ngini = 0.444444444444\nsamples = 6", shape="box"] ;
1 [label="name_name_lev <= 0.0385\ngini = 0.444444444444\nsamples = 3", shape="box"] ;
0 -> 1 ;
2 [label="gini = 0.5000\nsamples = 2\nvalue = [ 1.  1.]", shape="box"] ;
1 -> 2 ;
3 [label="gini = 0.0000\nsamples = 1\nvalue = [ 0.  1.]", shape="box"] ;
1 -> 3 ;
4 [label="gini = 0.0000\nsamples = 3\nvalue = [ 3.  0.]", shape="box"] ;
0 -> 4 ;
}